{"momentum":0.1,"batchSize":1,"outputActivation":"softmax","hiddenActivation":"sigmoid","weights":[[],[-10.8414,16.94632,-6.723843,32.78186,-8.807796,10.4924,6.235989,20.90681,9.295055,0.125474,2.755644,-5.596825,-2.979803,-5.62857,16.68408,4.447179,6.807339,6.217801,-3.724858,-18.1811,-4.627609,23.72808,-13.32587,5.177736,-23.73615,-16.9203,3.180767,-1.408678,14.18914,0.1923337,0.6582919,11.95985,-6.709881,19.24055,14.38108,8.738702,13.5484,10.56867,7.086167,-18.25034,-2.180714,8.652663,-10.16023,-9.195853,-22.62048,-16.39115,22.6295,0.2464249,-13.97448,5.035748,8.858473,-6.307654,16.47107,-4.161679,19.43258,5.41218,-2.784438,-13.05967,12.22575,8.987616,1.07598,13.77522,18.54976,-32.4035,-21.90478,3.685094,28.71262,-19.69447,-13.41967,15.13525,25.78866,13.24046,13.0251,4.044887,14.22987,7.886514,-14.53437,-7.662487,18.90381,-11.75127,-3.285291,9.293728,-23.26529,7.974508,19.84267,-16.12134,-16.7161,-24.2954,24.11293,-15.53949,-26.72422,1.812954,-3.745517,-17.34963,1.926116,-16.80505,0.4196869,-27.57757,33.47208,33.87024,28.829,14.27975,4.807736,10.29345,-20.20202,12.15528,-7.509705,6.631386,10.83624,11.64403,17.74762,-18.96113,-25.05691,15.73214,1.881701,29.54735,7.565134,-11.41782,-23.77868,1.021378,15.9651,0.824715,33.41625,-30.76151,4.191419,-1.150035,-8.001268,22.32872,-14.10024,18.4302,-0.442461,2.663022,5.707099,5.91463,27.54512,20.90441,0.3730528,-24.35101,-7.504138,15.28454,5.552332,-0.5642069,0.9911062,1.346611,5.806024,-6.075897,-4.883213,-7.385858,1.184393,-6.378502,-5.903137,-0.9318116,4.24381,-13.0209,-3.733985,-4.248862,2.901311,6.84262,2.634531,-1.355517,2.430226,-9.547358,-0.9849543,-3.096243,2.389665,-1.509855,-4.221817,2.733821,0.3459793,2.552087,2.271078,1.305566,5.424028,6.167539,-10.81862,-1.513686,-1.531014,-4.841706,-1.098137,3.213229,-4.647608,-3.725132,0.08337805,-2.341197,6.967947,-5.065979,1.804057,-6.617524,-4.175276,-4.63483,-1.148957,7.529459,-5.300054,-1.471155,1.887635,-1.028898,-2.341877,-2.904544,-0.5161752,1.607753,-2.575233,-8.518,-1.809399,-1.495941,3.708703,3.329168,-2.152245,-4.285094,0.1954596,-6.527375,-1.834652,-4.746229,-1.395936,-0.02697498,-0.4580984,-0.2452587,2.465305,-0.4131489,2.137813,1.981521,-3.734052,-14.878,1.361217,-0.4079182,2.068644,-0.9905191,4.630266,1.096648,0.5476562,2.644125,0.1009991,1.07013,0.3516284,4.69599,-7.492733,2.226518,1.115783,-1.904592,1.615909,2.179269,-11.14824,-2.192216,0.5519263,-0.50029,0.7157369,-7.458908,0.02863171,0.3080859,-0.1245925,3.60838,1.949111,0.51805,-2.618099,9.345123,1.134288,3.445997,-1.767946,-1.584049,-0.7370462,2.115055,-12.62785,1.602343,-18.17675,16.22091,-28.75246,14.12544,7.218791,-16.20105,27.68537,28.22715,-1.418571,-7.049432,-1.851486,-2.274711,18.08428,-21.73138,-11.88791,-0.2971907,30.41036,-25.04159,10.66587,18.70027,9.06931,-10.1195,-28.93022,-35.21698,11.63214,6.23208,-0.8046218,15.47665,4.748226,13.7786,-7.488842,9.873308,-15.36457,-16.37545,-12.93431,6.770849,-20.35513,-34.67899,-7.788407,22.45901,2.331489,18.75838,-38.6995,-35.39143,-33.46395,16.94677,-28.15899,-17.86909,41.40355,-2.851133,-5.267947,-62.61843,11.97867,7.504406,13.5065,26.53165,12.36963,-7.023638,0.7834468,-17.35796,-14.69157,9.993006,24.2905,5.966231,17.43139,30.01379,4.824931,15.23511,27.22908,-42.80916,3.253141,12.52982,-17.76303,15.78105,11.70142,8.076852,-18.84771,-14.89021,0.1351898,-5.32509,48.36135,-22.26773,-12.51369,0.6151482,4.931087,-39.55358,17.21586,-8.741615,-10.21065,-16.79381,22.77475,-14.82047,1.317888,9.03748,20.66066,12.76508,18.61889,13.60162,-3.724106,-4.57072,49.65288,-12.7037,-12.41391,-18.67203,-12.33933,-5.793163,-17.39665,-11.21375,28.74703,14.7345,-7.982893,12.75914,-14.61062,-29.60156,7.306345,-12.98261,-8.197982,-22.84832,-3.388832,-3.930934,-39.03191,-11.86621,-0.2204082,-47.87601,27.26461,14.21714,14.62719,5.524838,49.64088,-4.092507,-4.473763,-18.40587,-12.75,45.5014,-49.57973,-17.18603,4.503603,15.30263,-1.597162,-5.619433,0.9933907,2.416575,-3.406224,-1.24336,2.637671,-0.6433598,-6.601805,3.879903,3.417483,0.3901575,-5.322513,-1.25009,-0.8438343,0.5916182,-5.257097,-0.4967046,-1.697638,0.6377584,5.050713,0.5711297,-6.739825,1.286761,1.154816,-9.489759,-2.357868,1.3325,1.100573,-1.281241,-4.521196,-1.924479,-4.070768,9.662471,1.948395,0.2213827,-1.690597,-1.329421,1.892637,0.7197571,-4.218112,1.967763,6.590381,-7.359337,2.238494,7.290102,-2.906154,-1.807095,-0.4795288,-2.484411,3.903908,-0.8044432,-2.981646,-4.179379,12.61784,-5.986898,7.623489,0.5185487,-1.420933,-0.4328354,6.023725,8.94882,-6.153901,6.197516,-10.67768,-19.17341,4.856562,9.352924,-5.474846,-3.253525,10.03856,8.82861,-5.979648,12.6032,-12.29747,-7.322124,0.6157615,10.58737,2.580098,-2.797956,-7.333323,-5.150976,2.434982,6.641813,15.56218,-0.3068009,7.04646,2.837495,-5.597598,6.04297,-12.83402,0.1110389,24.23045,3.292736,1.900641,13.77673,7.437706,-7.983637,-2.547263,6.649517,10.20849,2.93994,-1.085214,1.460892,7.890534,-5.932872,-1.015319,1.629015,-0.8406253,-13.54435,2.024183,-4.603976,-2.728014,-14.2919,-1.177965,9.526525,1.866822,-2.161768,8.80628,1.222458],[2.746806,-2.749374,4.976674,-4.979973,-6.784757,6.78161,-6.677255,6.673038,-5.66653,5.663392,6.639798,-6.644696,-6.426188,6.42279,-4.850835,4.847838,6.165587,-6.170382,-2.99686,2.995389,5.968919,-5.972614,4.883496,-4.886528,-7.224085,7.221513,5.620479,-5.624709,-4.226859,4.223495,7.469123,-7.471992,3.916493,-3.919244,-6.160303,6.155211,7.816504,-7.820159,8.235415,-8.237761]],"layerNodeCounts":[26,20,2],"learningRate":0.2}