{"momentum":0.1,"batchSize":1,"outputActivation":"softmax","hiddenActivation":"sigmoid","weights":[[],[11.90899,-5.666208,-8.701056,-9.638134,-8.142998,6.610632,7.687948,-13.17456,4.189192,-2.610446,-11.15919,-4.35406,-39.13932,13.46255,12.38277,-2.085459,12.76815,-4.208915,-9.639287,-2.793987,-7.963344,0.7481803,-8.52209,7.253114,-4.61462,-5.942325,-0.1821308,-2.015389,13.54374,1.330538,2.981386,2.656461,-40.32008,15.49375,3.086938,-3.422566,12.43559,-7.015676,-5.413978,-5.264804,-28.02801,-7.622802,8.83449,-20.96226,-6.716913,-22.69835,-2.2245,-0.1204764,2.857042,13.60866,4.475992,-5.487837,17.10114,3.713743,-1.026757,3.001076,-0.6461679,4.693557,12.36969,3.653904,-12.3596,-18.15501,5.498489,-18.07188,4.499248,-19.72467,-1.476634,12.11726,-2.08964,-1.382002,2.441407,2.679447,0.1817466,9.477414,2.787783,-4.269057,10.42887,5.104127,-0.1253844,7.359107,4.558104,16.08827,11.21856,1.80859,6.394007,24.11674,-2.790317,3.983751,-21.37856,2.057495,7.919722,2.546369,9.438595,5.767986,-19.35847,13.33583,14.44993,-2.225192,22.097,-1.373304,3.463755,-5.2654,0.4614117,10.14767,10.03024,-14.47435,3.038003,-19.23355,1.363637,-2.238109,9.367725,25.93796,-14.05832,-13.70552,-4.446929,-17.49506,-3.379825,-14.00554,-5.771231,9.111931,-1.467944,7.230013,-2.579875,0.4613952,25.61914,-6.204363,-6.757374,1.854885,-1.922398,-18.44806,-7.173534,1.811834,9.979114,2.557317,-7.418318,-5.883922,-1.958414,-9.26393,13.64782,-8.175813,4.229028,-13.29832,0.1575619,1.289718,-4.453266,8.685803,1.8835,-5.645097,-3.2392,9.049505,2.716793,-1.600866,-3.85561,6.170713,-1.691469,-10.01469,-6.355064,-4.343985,-9.242423,-1.696933,-6.918296,7.46925,1.62344,-0.2577223,0.3489348,4.116343,3.743348,-5.243427,1.233088,-12.12657,-3.705865,0.8142487,5.210718,-0.3754625,0.8684673,0.1917416,2.172204,4.588195,10.33465,-6.389109,0.5068882,-5.085572,3.038153,0.9155079,-4.630553,8.096427,2.651714,3.797384,-2.023562,0.3371351,-1.462151,1.26949,-0.5849957,-0.3528357,-0.5631861,4.83528,-0.6006927,-0.233716,6.695932,-6.679234,1.894565,-4.396827,4.486225,1.192167,-2.325202,-8.04558,-12.63969,6.077911,-2.891357,-8.492296,1.352159,-7.553509,-1.985028,5.180035,0.3318333,-3.349649,-1.188786,2.789169,1.207505,4.643685,-0.7970766,7.365381,0.815378,0.9539838,4.788748,-4.471881,-11.49775,6.652482,2.819294,-2.982236,-1.724699,-3.550835,-3.579842,-5.401155,0.7793961,8.6364,0.5558094,3.586408,1.152124,1.045256,5.331955,2.701975,-1.213067,-0.1337966,1.052863,2.202857,-4.599106,0.5577707,-2.745678,2.982977,0.1197467,-2.49351,-2.650658,-3.453135,0.1762678,2.887984,2.309137,1.455926,5.174262,-1.30993,-22.51608,22.69335,-7.362556,6.326132,-1.191961,10.45468,12.27432,-7.649333,3.354064,1.742845,24.34639,-12.18788,-22.42804,2.820305,38.43682,5.849512,-11.47312,20.74771,22.40385,-9.206932,19.56487,2.374254,-7.236068,1.372672,-17.48911,-6.908039,-9.238345,0.3590352,-4.861429,-4.744391,-20.76395,-0.7911599,5.555554,3.549819,1.395371,3.804252,21.12899,17.03977,-7.856794,-6.646197,12.63769,15.969,-7.388496,-5.902855,-27.88354,-4.9851,-3.68206,29.3788,-8.41245,-1.877183,-19.33692,15.11832,-15.50047,-15.72202,17.58108,3.011565,11.81163,-6.547302,12.52563,-25.34491,-9.594685,3.66395,21.20329,-14.28584,2.442888,45.81794,7.363666,-8.076872,-11.38462,-4.709342,0.05544286,2.757622,15.12353,-5.866576,-12.42065,-11.07124,21.92677,-2.886628,-7.776851,20.66547,10.1099,8.213141,-16.84921,0.2674621,-15.5878,-12.13509,1.759768,11.70762,-3.592569,2.287308,-2.979245,-1.662108,1.929554,-3.452643,11.21579,-7.121796,-0.2518488,0.7830027,-0.569334,-10.24804,-17.38963,21.66836,6.992229,0.9525986,-2.74352,6.729774,-4.91909,-5.419366,6.614304,-13.35483,-14.41488,-9.889112,14.75361,10.28186,1.868313,-8.333311,-7.117387,17.89354,-8.256395,-10.14871,-3.98292,29.39285,-1.417437,0.1975373,-4.689899,10.83202,-4.644882,-1.831945,1.907454,2.729754,-32.75366,-4.559009,18.86633,0.9619026,-4.345211,12.82283,-1.528958,-17.85843,8.457517,9.614747,1.494762,2.727449,-0.6247284,3.34351,2.967469,-3.765244,0.7115559,-5.921867,-1.82797,-7.484469,2.320449,-3.404108,1.047131,-10.85214,2.516725,4.794684,-1.349665,0.01916645,-2.975599,-0.1114402,-6.861169,-13.02909,1.829329,-2.951071,-4.475573,-4.965505,1.77976,11.83746,-0.3845353,11.10489,2.886432,7.441407,-3.337666,-6.633565,0.6928998,-9.3151,-1.024868,-1.753856,11.39823,2.497464,4.868998,-1.130166,-0.156529,3.194994,4.992986,4.70218,-6.063172,3.626145,5.055522,-14.73538,-1.087634,5.863153,2.378239,4.338475,-6.468868,0.2268462,2.728997,2.334995,-9.000167,0.9676512,-15.18192,-3.133137,5.704369,14.16953,-2.55751,-7.740582,9.427752,20.41598,2.070961,3.616872,-0.174954,7.563933,-7.498466,1.699897,0.5827944,-3.643743,7.074681,3.905828,6.051542,1.662191,-2.084105,15.00419,-1.922906,-6.655021,7.877254,20.54642,-0.4877299,2.157598,-11.93473,-2.229797,-8.177933,-5.912822,7.987515,-1.59124,2.960167,5.001545,0.5912812,-8.853922,12.21373,-1.32866,-3.663063,-4.29336,3.355924,17.97341,17.89284,-4.062818,-6.972639,9.614039,-9.106418,13.81319,4.374581,0.8943009,2.035147,-5.814151,5.414628,-1.7585,-2.273348,-3.057804,15.53211,18.17177],[-6.222792,6.220892,6.584905,-6.586779,5.161553,-5.162894,14.34609,-14.34991,-6.645897,6.64458,-6.688997,6.686491,-4.444569,4.443347,-8.224585,8.221839,8.499321,-8.503041,4.408641,-4.410413,13.93608,-13.9395,4.417637,-4.419281,8.826393,-8.828828,2.879617,-2.881471,-5.833024,5.830537,-4.001379,3.999381,6.341065,-6.343904,-5.183037,5.181345,13.00654,-13.00957,-6.800761,6.79934]],"layerNodeCounts":[26,20,2],"learningRate":0.2}