{"momentum":0.1,"batchSize":1,"outputActivation":"softmax","hiddenActivation":"sigmoid","weights":[[],[-7.938848,2.824926,11.85211,-0.3772449,6.583382,1.231681,-5.835173,9.562157,-0.9151076,1.650417,1.639032,-7.746919,7.527964,-5.662168,-4.694895,-1.941877,-3.919393,1.500149,-9.278062,3.250238,-8.545673,-3.440872,10.06076,-0.9476929,5.80274,-6.270656,-0.1353735,7.831114,-0.470093,0.09199935,-4.487975,-3.259146,11.12767,-5.137456,-9.906231,2.686816,-6.88428,4.670383,-5.286404,4.129094,-11.50088,-2.878147,5.52273,13.42724,4.04155,2.477973,8.339322,4.275786,-3.903354,-4.128397,3.220069,-0.1585057,-0.6652082,-1.162277,2.220373,-6.675519,-3.708802,-7.069298,-0.4058752,-9.817063,-1.949751,-11.04338,0.06331286,6.183979,-3.460104,-4.667839,13.40193,-0.2040879,1.335767,-3.735169,-4.017254,1.028338,0.3370768,-2.982138,-4.021967,-2.675512,3.399992,-0.1334695,5.497276,-4.029335,-1.160144,-7.794308,1.906858,-9.81345,-15.32883,-26.38278,-5.508975,-6.46564,1.191301,7.357267,-3.647515,23.36308,3.622033,-3.491241,-8.005892,2.275898,3.624346,29.22838,35.99367,14.34749,3.552881,-1.354782,-15.18572,-4.107912,5.994927,25.07793,10.24092,-4.844552,8.117973,17.15986,4.156803,-20.68085,-12.62294,-4.522316,-4.718706,2.594998,8.542937,-14.80846,-8.504977,14.35757,-27.0965,9.537537,6.436523,20.90383,2.986921,4.757248,-3.709386,-3.482616,-3.174682,-9.026896,11.35754,11.02171,5.75512,-3.248878,1.346755,2.548113,-5.477248,5.310597,19.57308,-9.729297,1.741432,-3.922753,-10.74042,-0.2175043,-1.329645,1.245449,2.844272,2.024738,4.663857,4.087912,-2.240829,-2.213238,12.53257,20.64552,0.5823974,0.6201091,5.50544,2.696783,-1.912001,-0.35569,1.157349,4.156572,-6.677407,-3.287833,-4.865907,-2.304186,-0.6310597,-4.429519,12.56854,0.8086449,2.833805,2.902104,-4.309877,5.62975,1.258985,-14.22614,2.777935,2.139607,4.247726,-4.413193,-3.587181,-14.07186,10.09439,-5.99328,3.962197,-3.22351,-3.482297,3.167049,6.678482,-1.58571,2.274307,2.475254,-9.574222,2.09712,0.9635819,-0.7335899,1.318176,-2.612034,-1.867738,6.506037,3.562338,1.495943,15.71044,-2.990914,-0.8786983,-2.812539,-0.6136148,1.169483,-9.928189,-0.01016175,-12.88767,-0.01176171,3.482459,-6.825341,-8.379358,-7.319164,9.026242,3.37319,-1.121201,-6.612831,-18.08496,-13.25885,1.57354,16.39587,-4.680367,-3.859153,-0.3614194,-8.288334,-10.72784,-3.766181,8.382602,0.7523415,-5.948997,-3.034286,-4.487197,-7.375482,9.497032,-1.009775,0.8689561,-1.391623,-0.8322703,2.940641,1.03237,-1.302118,0.2148548,4.099193,1.016674,-3.299624,0.4878689,-0.1628494,-2.483257,2.224156,-4.088396,-3.443862,0.2174697,-3.90827,2.834857,-0.7762707,1.799573,-3.034856,-2.073872,-12.65011,-1.034767,-8.186867,-2.005291,-4.591774,8.973777,4.674946,1.456538,5.061755,1.777244,1.010151,-3.215349,3.571007,-12.19512,4.338615,-9.333324,-5.507433,5.891725,-6.62885,-4.935178,5.336996,-6.449406,-15.14185,2.067671,0.222712,0.07777546,-5.578165,-1.720241,-4.294626,4.013019,-1.493977,0.04921749,-3.949816,-6.872428,-6.696133,-4.710225,-3.192063,2.433961,-7.822928,-4.471879,-7.762719,-5.583946,0.8416035,-14.58672,9.497402,-0.9093468,-16.09527,-1.139025,1.322952,-3.223607,-1.94323,-0.5266826,0.1878427,13.72815,7.413713,9.236159,0.01294514,2.438467,10.8137,-5.183578,-12.03661,12.19673,-2.713593,3.982797,19.68435,-0.8121072,13.07707,1.477029,1.432292,-11.42642,-7.976855,-5.304596,2.404087,2.850384,0.8076637,-10.21256,3.459265,-2.521339,5.448137,-2.787177,0.595372,-6.263353,5.305393,-5.580483,-4.389612,35.48623,-4.058555,-0.7883109,15.90104,-3.140594,-7.120716,7.589502,-2.237303,-5.500754,1.11892,12.68785,2.221514,-0.9688115,2.876394,-2.524949,12.18892,0.06037306,1.751487,-6.667254,-9.3501,-0.3048001,-1.166999,-2.128796,-7.89807,1.814753,-0.1308189,5.096745,-12.65669,6.614859,7.437193,3.295804,-2.298843,12.04329,2.022819,11.32681,-13.74461,-19.84264,5.28978,7.790267,-14.4067,6.349533,16.92867,2.102288,19.83647,-7.254696,0.2635262,1.055442,-14.44527,-0.3763346,7.24052,-10.42289,5.464789,6.262951,-5.921072,4.462217,-12.64049,-1.306727,-6.8441,8.142869,-5.525241,-3.531252,-0.2415292,0.1441851,-3.235901,6.242831,-4.274273,23.2963,2.420129,-4.246072,8.867329,-4.082026,2.966949,-0.7378263,6.456687,0.8350389,6.47944,1.717993,-2.4115,-9.393632,1.905304,9.390419,-2.273596,3.063526,8.812062,4.512987,6.098535,-5.956784,6.720661,1.992117,-10.36711,-15.20698,3.725812,-0.3342195,-12.303,-0.03007937,11.55243,6.189974,-6.403984,-8.75721,-5.396106,1.588804,0.5142853,9.618542,-14.31341,0.6559334,-0.9507145,-4.987889,-7.150753,16.92165,2.908922,0.7471738,2.458368,0.6893123,6.296814,-2.797254,-12.29792,12.76576,-5.060266,2.026297,-3.63342,-16.33708,6.085106,4.634773,-13.81717,-5.095202,1.299418,5.092252,-6.123189,0.262206,3.036292,10.46276,14.35033,-6.830313,-1.338514,-4.772793,-0.07475442,-3.563996,5.944176,11.28087,4.097736,-11.85319,6.919386,-3.040784,6.140473,-0.3581457,0.1825585,1.324669,15.59358,-7.015474,2.880858,-2.640371,1.46214,-4.475176,1.79444,-12.66746,-5.015167,2.810169,3.262236,-7.955379,4.894684,8.759786,-8.665174,2.667863,-1.218426,-6.967799,-9.129247,14.38049,1.909091,-2.073151,-1.531496,18.43047,2.739885,-5.15795,4.786434],[4.498245,-4.49986,-3.861772,3.860611,-6.479878,6.478716,-5.427529,5.426738,-5.171185,5.170146,-3.332473,3.331129,6.716682,-6.718231,-2.870017,2.86907,3.726021,-3.727222,4.508254,-4.509376,-4.075325,4.07474,5.702017,-5.702762,-5.367088,5.366405,-6.429001,6.42792,-3.517269,3.516505,3.741768,-3.742759,4.07191,-4.073081,3.868461,-3.869169,4.509872,-4.510983,5.005891,-5.007382]],"layerNodeCounts":[26,20,2],"learningRate":0.2}